<?xml version="1.0"?>
<opencv_storage>
<cascade>
  <stageType>BOOST</stageType>
  <featureType>HAAR</featureType>
  <height>46</height>
  <width>38</width>
  <stageParams>
    <boostType>GAB</boostType>
    <minHitRate>9.9500000476837158e-01</minHitRate>
    <maxFalseAlarm>5.0000000000000000e-01</maxFalseAlarm>
    <weightTrimRate>9.4999998807907104e-01</weightTrimRate>
    <maxDepth>1</maxDepth>
    <maxWeakCount>100</maxWeakCount></stageParams>
  <featureParams>
    <maxCatCount>0</maxCatCount>
    <featSize>1</featSize>
    <mode>BASIC</mode></featureParams>
  <stageNum>3</stageNum>
  <stages>
    <!-- stage 0 -->
    <_>
      <maxWeakCount>3</maxWeakCount>
      <stageThreshold>-1.3045146465301514e+00</stageThreshold>
      <weakClassifiers>
        <_>
          <internalNodes>
            0 -1 6 -6.7926282063126564e-03</internalNodes>
          <leafValues>
            5.6097561120986938e-01 -9.2833876609802246e-01</leafValues></_>
        <_>
          <internalNodes>
            0 -1 4 -5.8225383982062340e-03</internalNodes>
          <leafValues>
            6.5454876422882080e-01 -8.7621814012527466e-01</leafValues></_>
        <_>
          <internalNodes>
            0 -1 0 -3.5328377271071076e-04</internalNodes>
          <leafValues>
            5.0004225969314575e-01 -1.</leafValues></_></weakClassifiers></_>
    <!-- stage 1 -->
    <_>
      <maxWeakCount>3</maxWeakCount>
      <stageThreshold>-1.1710265874862671e+00</stageThreshold>
      <weakClassifiers>
        <_>
          <internalNodes>
            0 -1 6 -6.7926282063126564e-03</internalNodes>
          <leafValues>
            7.7777779102325439e-01 -9.2948716878890991e-01</leafValues></_>
        <_>
          <internalNodes>
            0 -1 2 -7.6511017978191376e-03</internalNodes>
          <leafValues>
            1. -8.2854461669921875e-01</leafValues></_>
        <_>
          <internalNodes>
            0 -1 1 6.0031237080693245e-04</internalNodes>
          <leafValues>
            -1. 5.8700519800186157e-01</leafValues></_></weakClassifiers></_>
    <!-- stage 2 -->
    <_>
      <maxWeakCount>2</maxWeakCount>
      <stageThreshold>3.8585208356380463e-02</stageThreshold>
      <weakClassifiers>
        <_>
          <internalNodes>
            0 -1 3 6.6409073770046234e-03</internalNodes>
          <leafValues>
            -9.6141481399536133e-01 1.</leafValues></_>
        <_>
          <internalNodes>
            0 -1 5 -3.8066452834755182e-03</internalNodes>
          <leafValues>
            1. -9.3883764743804932e-01</leafValues></_></weakClassifiers></_></stages>
  <features>
    <_>
      <rects>
        <_>
          0 0 10 4 -1.</_>
        <_>
          0 2 10 2 2.</_></rects>
      <tilted>0</tilted></_>
    <_>
      <rects>
        <_>
          0 29 38 12 -1.</_>
        <_>
          0 29 19 6 2.</_>
        <_>
          19 35 19 6 2.</_></rects>
      <tilted>0</tilted></_>
    <_>
      <rects>
        <_>
          1 38 16 8 -1.</_>
        <_>
          1 38 8 4 2.</_>
        <_>
          9 42 8 4 2.</_></rects>
      <tilted>0</tilted></_>
    <_>
      <rects>
        <_>
          8 31 10 15 -1.</_>
        <_>
          8 36 10 5 3.</_></rects>
      <tilted>0</tilted></_>
    <_>
      <rects>
        <_>
          18 42 18 4 -1.</_>
        <_>
          18 44 18 2 2.</_></rects>
      <tilted>0</tilted></_>
    <_>
      <rects>
        <_>
          25 28 12 12 -1.</_>
        <_>
          29 28 4 12 3.</_></rects>
      <tilted>0</tilted></_>
    <_>
      <rects>
        <_>
          26 40 12 2 -1.</_>
        <_>
          30 40 4 2 3.</_></rects>
      <tilted>0</tilted></_></features></cascade>
</opencv_storage>
